<?xml version="1.0"?>
<opencv_storage>
<cascade>
  <stageType>BOOST</stageType>
  <featureType>HAAR</featureType>
  <height>18</height>
  <width>18</width>
  <stageParams>
    <boostType>GAB</boostType>
    <minHitRate>9.9500000476837158e-01</minHitRate>
    <maxFalseAlarm>5.0000000000000000e-01</maxFalseAlarm>
    <weightTrimRate>9.4999999999999996e-01</weightTrimRate>
    <maxDepth>1</maxDepth>
    <maxWeakCount>100</maxWeakCount></stageParams>
  <featureParams>
    <maxCatCount>0</maxCatCount>
    <featSize>1</featSize>
    <mode>BASIC</mode></featureParams>
  <stageNum>18</stageNum>
  <stages>
    <!-- stage 0 -->
    <_>
      <maxWeakCount>2</maxWeakCount>
      <stageThreshold>-1.4179001748561859e-01</stageThreshold>
      <weakClassifiers>
        <_>
          <internalNodes>
            0 -1 11 -8.0996211618185043e-03</internalNodes>
          <leafValues>
            -8.9333331584930420e-01 5.3600001335144043e-01</leafValues></_>
        <_>
          <internalNodes>
            0 -1 33 -7.2959616780281067e-02</internalNodes>
          <leafValues>
            -6.2757867574691772e-01 7.5154334306716919e-01</leafValues></_></weakClassifiers></_>
    <!-- stage 1 -->
    <_>
      <maxWeakCount>4</maxWeakCount>
      <stageThreshold>-4.2459115386009216e-01</stageThreshold>
      <weakClassifiers>
        <_>
          <internalNodes>
            0 -1 28 -4.0433278679847717e-01</internalNodes>
          <leafValues>
            -8.7012988328933716e-01 5.4471546411514282e-01</leafValues></_>
        <_>
          <internalNodes>
            0 -1 9 2.4528149515390396e-02</internalNodes>
          <leafValues>
            -7.1828204393386841e-01 5.8633756637573242e-01</leafValues></_>
        <_>
          <internalNodes>
            0 -1 65 2.9370348900556564e-02</internalNodes>
          <leafValues>
            -4.6461865305900574e-01 8.0798745155334473e-01</leafValues></_>
        <_>
          <internalNodes>
            0 -1 91 -2.1057132631540298e-02</internalNodes>
          <leafValues>
            -9.4878637790679932e-01 4.0472224354743958e-01</leafValues></_></weakClassifiers></_>
    <!-- stage 2 -->
    <_>
      <maxWeakCount>6</maxWeakCount>
      <stageThreshold>-4.4102975726127625e-01</stageThreshold>
      <weakClassifiers>
        <_>
          <internalNodes>
            0 -1 69 -1.6169967129826546e-02</internalNodes>
          <leafValues>
            7.0270270109176636e-01 -4.1269841790199280e-01</leafValues></_>
        <_>
          <internalNodes>
            0 -1 39 -1.9015129655599594e-02</internalNodes>
          <leafValues>
            6.5198856592178345e-01 -4.7803485393524170e-01</leafValues></_>
        <_>
          <internalNodes>
            0 -1 74 -6.2108123674988747e-03</internalNodes>
          <leafValues>
            -8.8374823331832886e-01 3.4881719946861267e-01</leafValues></_>
        <_>
          <internalNodes>
            0 -1 77 -3.3312182873487473e-02</internalNodes>
          <leafValues>
            8.7487000226974487e-01 -3.2210627198219299e-01</leafValues></_>
        <_>
          <internalNodes>
            0 -1 75 -7.0014901459217072e-02</internalNodes>
          <leafValues>
            8.2674181461334229e-01 -3.0188181996345520e-01</leafValues></_>
        <_>
          <internalNodes>
            0 -1 13 -5.8503706008195877e-02</internalNodes>
          <leafValues>
            8.8587999343872070e-01 -2.8658497333526611e-01</leafValues></_></weakClassifiers></_>
    <!-- stage 3 -->
    <_>
      <maxWeakCount>4</maxWeakCount>
      <stageThreshold>-4.3701085448265076e-01</stageThreshold>
      <weakClassifiers>
        <_>
          <internalNodes>
            0 -1 25 3.9951629936695099e-02</internalNodes>
          <leafValues>
            -5.4901963472366333e-01 5.7142859697341919e-01</leafValues></_>
        <_>
          <internalNodes>
            0 -1 38 -2.2100921720266342e-02</internalNodes>
          <leafValues>
            7.2283089160919189e-01 -3.8664975762367249e-01</leafValues></_>
        <_>
          <internalNodes>
            0 -1 48 -9.9624961614608765e-02</internalNodes>
          <leafValues>
            3.3813449740409851e-01 -9.4942581653594971e-01</leafValues></_>
        <_>
          <internalNodes>
            0 -1 80 -2.5942049920558929e-02</internalNodes>
          <leafValues>
            -9.5992416143417358e-01 2.9348319768905640e-01</leafValues></_></weakClassifiers></_>
    <!-- stage 4 -->
    <_>
      <maxWeakCount>4</maxWeakCount>
      <stageThreshold>-6.0701423883438110e-01</stageThreshold>
      <weakClassifiers>
        <_>
          <internalNodes>
            0 -1 10 -2.8464382048696280e-03</internalNodes>
          <leafValues>
            -8.3333331346511841e-01 3.5714286565780640e-01</leafValues></_>
        <_>
          <internalNodes>
            0 -1 41 -2.6394784450531006e-02</internalNodes>
          <leafValues>
            8.5130083560943604e-01 -4.1910856962203979e-01</leafValues></_>
        <_>
          <internalNodes>
            0 -1 4 -1.6382648609578609e-03</internalNodes>
          <leafValues>
            -9.7689247131347656e-01 2.9842051863670349e-01</leafValues></_>
        <_>
          <internalNodes>
            0 -1 57 -7.5340629555284977e-03</internalNodes>
          <leafValues>
            3.4700712561607361e-01 -8.0069386959075928e-01</leafValues></_></weakClassifiers></_>
    <!-- stage 5 -->
    <_>
      <maxWeakCount>4</maxWeakCount>
      <stageThreshold>-7.3662257194519043e-01</stageThreshold>
      <weakClassifiers>
        <_>
          <internalNodes>
            0 -1 27 -1.1208961904048920e-01</internalNodes>
          <leafValues>
            -9.6296298503875732e-01 3.5616439580917358e-01</leafValues></_>
        <_>
          <internalNodes>
            0 -1 3 -8.9299445971846581e-04</internalNodes>
          <leafValues>
            -7.5550734996795654e-01 2.7347892522811890e-01</leafValues></_>
        <_>
          <internalNodes>
            0 -1 60 2.0390469580888748e-02</internalNodes>
          <leafValues>
            -6.0380053520202637e-01 3.6885234713554382e-01</leafValues></_>
        <_>
          <internalNodes>
            0 -1 6 -1.8265419639647007e-03</internalNodes>
          <leafValues>
            -8.3122271299362183e-01 2.6652091741561890e-01</leafValues></_></weakClassifiers></_>
    <!-- stage 6 -->
    <_>
      <maxWeakCount>4</maxWeakCount>
      <stageThreshold>-3.8654702901840210e-01</stageThreshold>
      <weakClassifiers>
        <_>
          <internalNodes>
            0 -1 0 8.8567100465297699e-04</internalNodes>
          <leafValues>
            3.2413792610168457e-01 -8.5454547405242920e-01</leafValues></_>
        <_>
          <internalNodes>
            0 -1 72 1.2852149084210396e-02</internalNodes>
          <leafValues>
            -3.8911023736000061e-01 8.0939596891403198e-01</leafValues></_>
        <_>
          <internalNodes>
            0 -1 34 5.6421193294227123e-03</internalNodes>
          <leafValues>
            -5.7156229019165039e-01 5.6677103042602539e-01</leafValues></_>
        <_>
          <internalNodes>
            0 -1 15 1.4968581963330507e-03</internalNodes>
          <leafValues>
            2.9033762216567993e-01 -1.</leafValues></_></weakClassifiers></_>
    <!-- stage 7 -->
    <_>
      <maxWeakCount>5</maxWeakCount>
      <stageThreshold>-2.8940767049789429e-01</stageThreshold>
      <weakClassifiers>
        <_>
          <internalNodes>
            0 -1 78 3.2977836672216654e-03</internalNodes>
          <leafValues>
            2.7631577849388123e-01 -8.7500000000000000e-01</leafValues></_>
        <_>
          <internalNodes>
            0 -1 70 -7.0419269613921642e-03</internalNodes>
          <leafValues>
            3.9316543936729431e-01 -5.9643608331680298e-01</leafValues></_>
        <_>
          <internalNodes>
            0 -1 14 5.1844823174178600e-03</internalNodes>
          <leafValues>
            -4.7821867465972900e-01 4.7194775938987732e-01</leafValues></_>
        <_>
          <internalNodes>
            0 -1 21 1.4220161829143763e-03</internalNodes>
          <leafValues>
            2.8737828135490417e-01 -7.9653179645538330e-01</leafValues></_>
        <_>
          <internalNodes>
            0 -1 53 7.6978048309683800e-03</internalNodes>
          <leafValues>
            -4.6364590525627136e-01 5.1701092720031738e-01</leafValues></_></weakClassifiers></_>
    <!-- stage 8 -->
    <_>
      <maxWeakCount>6</maxWeakCount>
      <stageThreshold>-6.8667322397232056e-01</stageThreshold>
      <weakClassifiers>
        <_>
          <internalNodes>
            0 -1 40 -6.7397700622677803e-03</internalNodes>
          <leafValues>
            5.6164383888244629e-01 -3.2283464074134827e-01</leafValues></_>
        <_>
          <internalNodes>
            0 -1 52 1.8492221832275391e-02</internalNodes>
          <leafValues>
            -3.5587990283966064e-01 6.0053890943527222e-01</leafValues></_>
        <_>
          <internalNodes>
            0 -1 36 -2.7262866497039795e-02</internalNodes>
          <leafValues>
            6.6378295421600342e-01 -3.2756265997886658e-01</leafValues></_>
        <_>
          <internalNodes>
            0 -1 88 1.5804348513484001e-03</internalNodes>
          <leafValues>
            3.0792364478111267e-01 -7.9162031412124634e-01</leafValues></_>
        <_>
          <internalNodes>
            0 -1 63 -4.5414835214614868e-02</internalNodes>
          <leafValues>
            9.5998704433441162e-01 -2.4115462601184845e-01</leafValues></_>
        <_>
          <internalNodes>
            0 -1 87 6.9917557993903756e-04</internalNodes>
          <leafValues>
            2.5283494591712952e-01 -9.2105382680892944e-01</leafValues></_></weakClassifiers></_>
    <!-- stage 9 -->
    <_>
      <maxWeakCount>6</maxWeakCount>
      <stageThreshold>-8.4219115972518921e-01</stageThreshold>
      <weakClassifiers>
        <_>
          <internalNodes>
            0 -1 43 3.6411711480468512e-03</internalNodes>
          <leafValues>
            -2.9496401548385620e-01 6.7213112115859985e-01</leafValues></_>
        <_>
          <internalNodes>
            0 -1 67 -1.1778813786804676e-03</internalNodes>
          <leafValues>
            -8.8365215063095093e-01 2.5313073396682739e-01</leafValues></_>
        <_>
          <internalNodes>
            0 -1 54 6.1505008488893509e-04</internalNodes>
          <leafValues>
            -2.6398703455924988e-01 7.2040432691574097e-01</leafValues></_>
        <_>
          <internalNodes>
            0 -1 23 -2.9255636036396027e-03</internalNodes>
          <leafValues>
            -7.9618656635284424e-01 2.1772667765617371e-01</leafValues></_>
        <_>
          <internalNodes>
            0 -1 71 8.5180085152387619e-03</internalNodes>
          <leafValues>
            -3.6132436990737915e-01 6.4367717504501343e-01</leafValues></_>
        <_>
          <internalNodes>
            0 -1 55 1.8603667616844177e-02</internalNodes>
          <leafValues>
            -3.9277315139770508e-01 5.2142709493637085e-01</leafValues></_></weakClassifiers></_>
    <!-- stage 10 -->
    <_>
      <maxWeakCount>4</maxWeakCount>
      <stageThreshold>-2.9777255654335022e-01</stageThreshold>
      <weakClassifiers>
        <_>
          <internalNodes>
            0 -1 32 7.9777985811233521e-03</internalNodes>
          <leafValues>
            -2.9411765933036804e-01 6.2500000000000000e-01</leafValues></_>
        <_>
          <internalNodes>
            0 -1 59 -9.8760554101318121e-04</internalNodes>
          <leafValues>
            6.7685174942016602e-01 -2.6588878035545349e-01</leafValues></_>
        <_>
          <internalNodes>
            0 -1 58 -3.2798454165458679e-02</internalNodes>
          <leafValues>
            5.5925804376602173e-01 -2.9820629954338074e-01</leafValues></_>
        <_>
          <internalNodes>
            0 -1 42 2.5071792304515839e-02</internalNodes>
          <leafValues>
            -2.9702419042587280e-01 7.0400565862655640e-01</leafValues></_></weakClassifiers></_>
    <!-- stage 11 -->
    <_>
      <maxWeakCount>6</maxWeakCount>
      <stageThreshold>-7.9226070642471313e-01</stageThreshold>
      <weakClassifiers>
        <_>
          <internalNodes>
            0 -1 61 -2.0530603826045990e-02</internalNodes>
          <leafValues>
            4.8314607143402100e-01 -3.8738739490509033e-01</leafValues></_>
        <_>
          <internalNodes>
            0 -1 66 -2.3182608187198639e-02</internalNodes>
          <leafValues>
            7.5653147697448730e-01 -2.5562146306037903e-01</leafValues></_>
        <_>
          <internalNodes>
            0 -1 47 -1.2667469680309296e-02</internalNodes>
          <leafValues>
            7.6234161853790283e-01 -2.7809002995491028e-01</leafValues></_>
        <_>
          <internalNodes>
            0 -1 35 -2.0789876580238342e-02</internalNodes>
          <leafValues>
            7.4098753929138184e-01 -2.5554600358009338e-01</leafValues></_>
        <_>
          <internalNodes>
            0 -1 26 7.5280450284481049e-02</internalNodes>
          <leafValues>
            -3.6462193727493286e-01 5.4630708694458008e-01</leafValues></_>
        <_>
          <internalNodes>
            0 -1 49 -1.1367822065949440e-02</internalNodes>
          <leafValues>
            8.7051665782928467e-01 -2.4752745032310486e-01</leafValues></_></weakClassifiers></_>
    <!-- stage 12 -->
    <_>
      <maxWeakCount>9</maxWeakCount>
      <stageThreshold>-6.2945157289505005e-01</stageThreshold>
      <weakClassifiers>
        <_>
          <internalNodes>
            0 -1 19 2.7550239115953445e-02</internalNodes>
          <leafValues>
            -2.3999999463558197e-01 7.2000002861022949e-01</leafValues></_>
        <_>
          <internalNodes>
            0 -1 1 -1.6013218555599451e-03</internalNodes>
          <leafValues>
            -9.1132932901382446e-01 2.1007539331912994e-01</leafValues></_>
        <_>
          <internalNodes>
            0 -1 18 -5.2459398284554482e-04</internalNodes>
          <leafValues>
            4.3016514182090759e-01 -4.3576267361640930e-01</leafValues></_>
        <_>
          <internalNodes>
            0 -1 68 3.3920397982001305e-03</internalNodes>
          <leafValues>
            2.2507153451442719e-01 -9.0249562263488770e-01</leafValues></_>
        <_>
          <internalNodes>
            0 -1 20 -5.5892402306199074e-03</internalNodes>
          <leafValues>
            5.0934052467346191e-01 -4.1101834177970886e-01</leafValues></_>
        <_>
          <internalNodes>
            0 -1 7 2.2709673270583153e-02</internalNodes>
          <leafValues>
            -2.2674490511417389e-01 6.5649247169494629e-01</leafValues></_>
        <_>
          <internalNodes>
            0 -1 16 7.2460160590708256e-03</internalNodes>
          <leafValues>
            3.4521010518074036e-01 -5.1564317941665649e-01</leafValues></_>
        <_>
          <internalNodes>
            0 -1 79 1.2280553346499801e-03</internalNodes>
          <leafValues>
            -3.3674320578575134e-01 5.3109997510910034e-01</leafValues></_>
        <_>
          <internalNodes>
            0 -1 83 -2.9500972013920546e-03</internalNodes>
          <leafValues>
            5.2475070953369141e-01 -4.2524898052215576e-01</leafValues></_></weakClassifiers></_>
    <!-- stage 13 -->
    <_>
      <maxWeakCount>5</maxWeakCount>
      <stageThreshold>-5.6434297561645508e-01</stageThreshold>
      <weakClassifiers>
        <_>
          <internalNodes>
            0 -1 85 -1.2454872485250235e-03</internalNodes>
          <leafValues>
            6.1764705181121826e-01 -3.1818181276321411e-01</leafValues></_>
        <_>
          <internalNodes>
            0 -1 5 -2.3517927620559931e-03</internalNodes>
          <leafValues>
            -8.8654780387878418e-01 2.3437899351119995e-01</leafValues></_>
        <_>
          <internalNodes>
            0 -1 2 2.7992632240056992e-03</internalNodes>
          <leafValues>
            3.0695104598999023e-01 -5.7217508554458618e-01</leafValues></_>
        <_>
          <internalNodes>
            0 -1 81 5.1416880451142788e-03</internalNodes>
          <leafValues>
            -3.2567122578620911e-01 5.6240093708038330e-01</leafValues></_>
        <_>
          <internalNodes>
            0 -1 44 2.4976350367069244e-02</internalNodes>
          <leafValues>
            -2.7672207355499268e-01 6.1685055494308472e-01</leafValues></_></weakClassifiers></_>
    <!-- stage 14 -->
    <_>
      <maxWeakCount>4</maxWeakCount>
      <stageThreshold>-8.5824221372604370e-02</stageThreshold>
      <weakClassifiers>
        <_>
          <internalNodes>
            0 -1 12 9.4101042486727238e-04</internalNodes>
          <leafValues>
            1.9512194395065308e-01 -8.8888889551162720e-01</leafValues></_>
        <_>
          <internalNodes>
            0 -1 51 -2.4676779867149889e-04</internalNodes>
          <leafValues>
            3.8378027081489563e-01 -5.3356128931045532e-01</leafValues></_>
        <_>
          <internalNodes>
            0 -1 30 -3.1819313764572144e-02</internalNodes>
          <leafValues>
            1.9214659929275513e-01 -1.</leafValues></_>
        <_>
          <internalNodes>
            0 -1 24 -6.8181171081960201e-04</internalNodes>
          <leafValues>
            -8.5687303543090820e-01 2.7240356802940369e-01</leafValues></_></weakClassifiers></_>
    <!-- stage 15 -->
    <_>
      <maxWeakCount>7</maxWeakCount>
      <stageThreshold>-1.0419905185699463e+00</stageThreshold>
      <weakClassifiers>
        <_>
          <internalNodes>
            0 -1 64 1.5762180555611849e-03</internalNodes>
          <leafValues>
            1.6279070079326630e-01 -1.</leafValues></_>
        <_>
          <internalNodes>
            0 -1 8 3.4417347051203251e-03</internalNodes>
          <leafValues>
            -6.5496420860290527e-01 2.3706851899623871e-01</leafValues></_>
        <_>
          <internalNodes>
            0 -1 86 3.1150020658969879e-03</internalNodes>
          <leafValues>
            1.9944554567337036e-01 -8.8093334436416626e-01</leafValues></_>
        <_>
          <internalNodes>
            0 -1 76 5.5241924710571766e-03</internalNodes>
          <leafValues>
            -3.7910452485084534e-01 5.5218815803527832e-01</leafValues></_>
        <_>
          <internalNodes>
            0 -1 50 -4.5194560661911964e-03</internalNodes>
          <leafValues>
            7.5030535459518433e-01 -3.0892324447631836e-01</leafValues></_>
        <_>
          <internalNodes>
            0 -1 89 4.5017357915639877e-03</internalNodes>
          <leafValues>
            3.4222996234893799e-01 -7.0045709609985352e-01</leafValues></_>
        <_>
          <internalNodes>
            0 -1 29 4.0168125182390213e-02</internalNodes>
          <leafValues>
            -2.9207026958465576e-01 7.9764360189437866e-01</leafValues></_></weakClassifiers></_>
    <!-- stage 16 -->
    <_>
      <maxWeakCount>6</maxWeakCount>
      <stageThreshold>-4.7053205966949463e-01</stageThreshold>
      <weakClassifiers>
        <_>
          <internalNodes>
            0 -1 31 1.8469404429197311e-02</internalNodes>
          <leafValues>
            -2.1854305267333984e-01 6.7346936464309692e-01</leafValues></_>
        <_>
          <internalNodes>
            0 -1 84 6.8430374376475811e-03</internalNodes>
          <leafValues>
            1.7615011334419250e-01 -9.5824956893920898e-01</leafValues></_>
        <_>
          <internalNodes>
            0 -1 73 2.3218593560159206e-03</internalNodes>
          <leafValues>
            -3.3438062667846680e-01 5.2363717555999756e-01</leafValues></_>
        <_>
          <internalNodes>
            0 -1 37 5.8882730081677437e-03</internalNodes>
          <leafValues>
            -2.6437562704086304e-01 7.8221648931503296e-01</leafValues></_>
        <_>
          <internalNodes>
            0 -1 46 3.3644924405962229e-03</internalNodes>
          <leafValues>
            -2.4826005101203918e-01 7.0617401599884033e-01</leafValues></_>
        <_>
          <internalNodes>
            0 -1 56 -2.1408442407846451e-02</internalNodes>
          <leafValues>
            4.7061777114868164e-01 -3.8532772660255432e-01</leafValues></_></weakClassifiers></_>
    <!-- stage 17 -->
    <_>
      <maxWeakCount>6</maxWeakCount>
      <stageThreshold>-2.0514965057373047e-01</stageThreshold>
      <weakClassifiers>
        <_>
          <internalNodes>
            0 -1 22 5.8721157256513834e-04</internalNodes>
          <leafValues>
            3.3846154808998108e-01 -6.2857145071029663e-01</leafValues></_>
        <_>
          <internalNodes>
            0 -1 82 -2.9126796871423721e-02</internalNodes>
          <leafValues>
            7.3184907436370850e-01 -2.8045085072517395e-01</leafValues></_>
        <_>
          <internalNodes>
            0 -1 17 -1.6791813075542450e-02</internalNodes>
          <leafValues>
            -9.6950024366378784e-01 1.9894611835479736e-01</leafValues></_>
        <_>
          <internalNodes>
            0 -1 90 2.3833615705370903e-03</internalNodes>
          <leafValues>
            1.3992536067962646e-01 -8.7580305337905884e-01</leafValues></_>
        <_>
          <internalNodes>
            0 -1 62 -1.3229590840637684e-03</internalNodes>
          <leafValues>
            7.2844201326370239e-01 -2.5889199972152710e-01</leafValues></_>
        <_>
          <internalNodes>
            0 -1 45 -7.7374950051307678e-03</internalNodes>
          <leafValues>
            6.8761873245239258e-01 -3.1474539637565613e-01</leafValues></_></weakClassifiers></_></stages>
  <features>
    <_>
      <rects>
        <_>
          0 0 1 2 -1.</_>
        <_>
          0 1 1 1 2.</_></rects>
      <tilted>0</tilted></_>
    <_>
      <rects>
        <_>
          0 0 2 3 -1.</_>
        <_>
          1 0 1 3 2.</_></rects>
      <tilted>0</tilted></_>
    <_>
      <rects>
        <_>
          0 0 1 8 -1.</_>
        <_>
          0 4 1 4 2.</_></rects>
      <tilted>0</tilted></_>
    <_>
      <rects>
        <_>
          0 0 2 9 -1.</_>
        <_>
          1 0 1 9 2.</_></rects>
      <tilted>0</tilted></_>
    <_>
      <rects>
        <_>
          0 0 2 2 -1.</_>
        <_>
          0 1 2 1 2.</_></rects>
      <tilted>0</tilted></_>
    <_>
      <rects>
        <_>
          0 0 6 1 -1.</_>
        <_>
          3 0 3 1 2.</_></rects>
      <tilted>0</tilted></_>
    <_>
      <rects>
        <_>
          0 0 6 2 -1.</_>
        <_>
          0 0 3 1 2.</_>
        <_>
          3 1 3 1 2.</_></rects>
      <tilted>0</tilted></_>
    <_>
      <rects>
        <_>
          0 0 8 8 -1.</_>
        <_>
          0 0 4 4 2.</_>
        <_>
          4 4 4 4 2.</_></rects>
      <tilted>0</tilted></_>
    <_>
      <rects>
        <_>
          0 0 8 5 -1.</_>
        <_>
          4 0 4 5 2.</_></rects>
      <tilted>0</tilted></_>
    <_>
      <rects>
        <_>
          0 0 10 7 -1.</_>
        <_>
          5 0 5 7 2.</_></rects>
      <tilted>0</tilted></_>
    <_>
      <rects>
        <_>
          0 0 14 2 -1.</_>
        <_>
          0 1 14 1 2.</_></rects>
      <tilted>0</tilted></_>
    <_>
      <rects>
        <_>
          0 0 18 6 -1.</_>
        <_>
          0 3 18 3 2.</_></rects>
      <tilted>0</tilted></_>
    <_>
      <rects>
        <_>
          0 1 1 2 -1.</_>
        <_>
          0 2 1 1 2.</_></rects>
      <tilted>0</tilted></_>
    <_>
      <rects>
        <_>
          0 1 6 12 -1.</_>
        <_>
          0 1 3 6 2.</_>
        <_>
          3 7 3 6 2.</_></rects>
      <tilted>0</tilted></_>
    <_>
      <rects>
        <_>
          0 1 12 2 -1.</_>
        <_>
          6 1 6 2 2.</_></rects>
      <tilted>0</tilted></_>
    <_>
      <rects>
        <_>
          0 4 2 2 -1.</_>
        <_>
          0 4 1 1 2.</_>
        <_>
          1 5 1 1 2.</_></rects>
      <tilted>0</tilted></_>
    <_>
      <rects>
        <_>
          0 5 2 10 -1.</_>
        <_>
          0 10 2 5 2.</_></rects>
      <tilted>0</tilted></_>
    <_>
      <rects>
        <_>
          0 8 10 2 -1.</_>
        <_>
          0 9 10 1 2.</_></rects>
      <tilted>0</tilted></_>
    <_>
      <rects>
        <_>
          0 9 2 8 -1.</_>
        <_>
          0 9 1 4 2.</_>
        <_>
          1 13 1 4 2.</_></rects>
      <tilted>0</tilted></_>
    <_>
      <rects>
        <_>
          0 10 6 6 -1.</_>
        <_>
          3 10 3 6 2.</_></rects>
      <tilted>0</tilted></_>
    <_>
      <rects>
        <_>
          0 11 6 1 -1.</_>
        <_>
          3 11 3 1 2.</_></rects>
      <tilted>0</tilted></_>
    <_>
      <rects>
        <_>
          0 12 1 6 -1.</_>
        <_>
          0 15 1 3 2.</_></rects>
      <tilted>0</tilted></_>
    <_>
      <rects>
        <_>
          0 12 2 6 -1.</_>
        <_>
          0 12 1 3 2.</_>
        <_>
          1 15 1 3 2.</_></rects>
      <tilted>0</tilted></_>
    <_>
      <rects>
        <_>
          0 13 2 5 -1.</_>
        <_>
          1 13 1 5 2.</_></rects>
      <tilted>0</tilted></_>
    <_>
      <rects>
        <_>
          1 0 2 2 -1.</_>
        <_>
          1 0 1 1 2.</_>
        <_>
          2 1 1 1 2.</_></rects>
      <tilted>0</tilted></_>
    <_>
      <rects>
        <_>
          1 0 14 6 -1.</_>
        <_>
          1 3 14 3 2.</_></rects>
      <tilted>0</tilted></_>
    <_>
      <rects>
        <_>
          1 0 17 8 -1.</_>
        <_>
          1 4 17 4 2.</_></rects>
      <tilted>0</tilted></_>
    <_>
      <rects>
        <_>
          1 1 1 15 -1.</_>
        <_>
          1 6 1 5 2.</_></rects>
      <tilted>0</tilted></_>
    <_>
      <rects>
        <_>
          1 1 6 10 -1.</_>
        <_>
          3 1 2 10 2.</_></rects>
      <tilted>0</tilted></_>
    <_>
      <rects>
        <_>
          1 1 10 6 -1.</_>
        <_>
          1 1 5 3 2.</_>
        <_>
          6 4 5 3 2.</_></rects>
      <tilted>0</tilted></_>
    <_>
      <rects>
        <_>
          1 7 2 6 -1.</_>
        <_>
          1 9 2 2 2.</_></rects>
      <tilted>0</tilted></_>
    <_>
      <rects>
        <_>
          1 11 6 4 -1.</_>
        <_>
          1 11 3 2 2.</_>
        <_>
          4 13 3 2 2.</_></rects>
      <tilted>0</tilted></_>
    <_>
      <rects>
        <_>
          1 14 10 2 -1.</_>
        <_>
          1 14 5 1 2.</_>
        <_>
          6 15 5 1 2.</_></rects>
      <tilted>0</tilted></_>
    <_>
      <rects>
        <_>
          2 0 15 1 -1.</_>
        <_>
          7 0 5 1 2.</_></rects>
      <tilted>0</tilted></_>
    <_>
      <rects>
        <_>
          2 3 6 2 -1.</_>
        <_>
          5 3 3 2 2.</_></rects>
      <tilted>0</tilted></_>
    <_>
      <rects>
        <_>
          2 6 6 5 -1.</_>
        <_>
          5 6 3 5 2.</_></rects>
      <tilted>0</tilted></_>
    <_>
      <rects>
        <_>
          2 6 6 7 -1.</_>
        <_>
          5 6 3 7 2.</_></rects>
      <tilted>0</tilted></_>
    <_>
      <rects>
        <_>
          2 9 2 3 -1.</_>
        <_>
          3 9 1 3 2.</_></rects>
      <tilted>0</tilted></_>
    <_>
      <rects>
        <_>
          2 10 6 5 -1.</_>
        <_>
          5 10 3 5 2.</_></rects>
      <tilted>0</tilted></_>
    <_>
      <rects>
        <_>
          2 10 8 4 -1.</_>
        <_>
          6 10 4 4 2.</_></rects>
      <tilted>0</tilted></_>
    <_>
      <rects>
        <_>
          2 14 8 1 -1.</_>
        <_>
          6 14 4 1 2.</_></rects>
      <tilted>0</tilted></_>
    <_>
      <rects>
        <_>
          3 3 4 12 -1.</_>
        <_>
          3 3 2 6 2.</_>
        <_>
          5 9 2 6 2.</_></rects>
      <tilted>0</tilted></_>
    <_>
      <rects>
        <_>
          3 9 6 8 -1.</_>
        <_>
          3 9 3 4 2.</_>
        <_>
          6 13 3 4 2.</_></rects>
      <tilted>0</tilted></_>
    <_>
      <rects>
        <_>
          3 14 6 2 -1.</_>
        <_>
          3 14 3 1 2.</_>
        <_>
          6 15 3 1 2.</_></rects>
      <tilted>0</tilted></_>
    <_>
      <rects>
        <_>
          4 0 3 6 -1.</_>
        <_>
          4 3 3 3 2.</_></rects>
      <tilted>0</tilted></_>
    <_>
      <rects>
        <_>
          4 4 2 9 -1.</_>
        <_>
          5 4 1 9 2.</_></rects>
      <tilted>0</tilted></_>
    <_>
      <rects>
        <_>
          4 8 4 1 -1.</_>
        <_>
          6 8 2 1 2.</_></rects>
      <tilted>0</tilted></_>
    <_>
      <rects>
        <_>
          5 2 2 16 -1.</_>
        <_>
          5 2 1 8 2.</_>
        <_>
          6 10 1 8 2.</_></rects>
      <tilted>0</tilted></_>
    <_>
      <rects>
        <_>
          5 3 10 3 -1.</_>
        <_>
          5 4 10 1 2.</_></rects>
      <tilted>0</tilted></_>
    <_>
      <rects>
        <_>
          5 11 4 4 -1.</_>
        <_>
          5 11 2 2 2.</_>
        <_>
          7 13 2 2 2.</_></rects>
      <tilted>0</tilted></_>
    <_>
      <rects>
        <_>
          5 16 4 2 -1.</_>
        <_>
          5 17 4 1 2.</_></rects>
      <tilted>0</tilted></_>
    <_>
      <rects>
        <_>
          6 0 10 6 -1.</_>
        <_>
          11 0 5 6 2.</_></rects>
      <tilted>0</tilted></_>
    <_>
      <rects>
        <_>
          6 1 4 6 -1.</_>
        <_>
          6 4 4 3 2.</_></rects>
      <tilted>0</tilted></_>
    <_>
      <rects>
        <_>
          6 8 8 10 -1.</_>
        <_>
          10 8 4 10 2.</_></rects>
      <tilted>0</tilted></_>
    <_>
      <rects>
        <_>
          6 15 2 1 -1.</_>
        <_>
          7 15 1 1 2.</_></rects>
      <tilted>0</tilted></_>
    <_>
      <rects>
        <_>
          7 1 8 4 -1.</_>
        <_>
          7 3 8 2 2.</_></rects>
      <tilted>0</tilted></_>
    <_>
      <rects>
        <_>
          7 4 6 6 -1.</_>
        <_>
          7 7 6 3 2.</_></rects>
      <tilted>0</tilted></_>
    <_>
      <rects>
        <_>
          7 5 7 8 -1.</_>
        <_>
          7 9 7 4 2.</_></rects>
      <tilted>0</tilted></_>
    <_>
      <rects>
        <_>
          7 8 3 8 -1.</_>
        <_>
          7 12 3 4 2.</_></rects>
      <tilted>0</tilted></_>
    <_>
      <rects>
        <_>
          7 13 2 4 -1.</_>
        <_>
          7 13 1 2 2.</_>
        <_>
          8 15 1 2 2.</_></rects>
      <tilted>0</tilted></_>
    <_>
      <rects>
        <_>
          8 1 10 14 -1.</_>
        <_>
          8 1 5 7 2.</_>
        <_>
          13 8 5 7 2.</_></rects>
      <tilted>0</tilted></_>
    <_>
      <rects>
        <_>
          8 4 10 2 -1.</_>
        <_>
          13 4 5 2 2.</_></rects>
      <tilted>0</tilted></_>
    <_>
      <rects>
        <_>
          8 10 2 2 -1.</_>
        <_>
          9 10 1 2 2.</_></rects>
      <tilted>0</tilted></_>
    <_>
      <rects>
        <_>
          8 13 10 4 -1.</_>
        <_>
          8 13 5 2 2.</_>
        <_>
          13 15 5 2 2.</_></rects>
      <tilted>0</tilted></_>
    <_>
      <rects>
        <_>
          9 0 2 1 -1.</_>
        <_>
          10 0 1 1 2.</_></rects>
      <tilted>0</tilted></_>
    <_>
      <rects>
        <_>
          9 11 8 5 -1.</_>
        <_>
          13 11 4 5 2.</_></rects>
      <tilted>0</tilted></_>
    <_>
      <rects>
        <_>
          9 14 8 4 -1.</_>
        <_>
          9 14 4 2 2.</_>
        <_>
          13 16 4 2 2.</_></rects>
      <tilted>0</tilted></_>
    <_>
      <rects>
        <_>
          10 0 2 1 -1.</_>
        <_>
          11 0 1 1 2.</_></rects>
      <tilted>0</tilted></_>
    <_>
      <rects>
        <_>
          10 0 8 1 -1.</_>
        <_>
          14 0 4 1 2.</_></rects>
      <tilted>0</tilted></_>
    <_>
      <rects>
        <_>
          10 5 8 2 -1.</_>
        <_>
          14 5 4 2 2.</_></rects>
      <tilted>0</tilted></_>
    <_>
      <rects>
        <_>
          10 7 3 6 -1.</_>
        <_>
          10 10 3 3 2.</_></rects>
      <tilted>0</tilted></_>
    <_>
      <rects>
        <_>
          10 13 4 3 -1.</_>
        <_>
          12 13 2 3 2.</_></rects>
      <tilted>0</tilted></_>
    <_>
      <rects>
        <_>
          10 13 6 2 -1.</_>
        <_>
          13 13 3 2 2.</_></rects>
      <tilted>0</tilted></_>
    <_>
      <rects>
        <_>
          10 15 6 1 -1.</_>
        <_>
          13 15 3 1 2.</_></rects>
      <tilted>0</tilted></_>
    <_>
      <rects>
        <_>
          11 0 7 4 -1.</_>
        <_>
          11 2 7 2 2.</_></rects>
      <tilted>0</tilted></_>
    <_>
      <rects>
        <_>
          12 3 6 15 -1.</_>
        <_>
          15 3 3 15 2.</_></rects>
      <tilted>0</tilted></_>
    <_>
      <rects>
        <_>
          12 10 4 4 -1.</_>
        <_>
          14 10 2 4 2.</_></rects>
      <tilted>0</tilted></_>
    <_>
      <rects>
        <_>
          12 10 6 8 -1.</_>
        <_>
          12 10 3 4 2.</_>
        <_>
          15 14 3 4 2.</_></rects>
      <tilted>0</tilted></_>
    <_>
      <rects>
        <_>
          13 0 4 4 -1.</_>
        <_>
          15 0 2 4 2.</_></rects>
      <tilted>0</tilted></_>
    <_>
      <rects>
        <_>
          13 11 4 1 -1.</_>
        <_>
          15 11 2 1 2.</_></rects>
      <tilted>0</tilted></_>
    <_>
      <rects>
        <_>
          14 2 1 3 -1.</_>
        <_>
          14 3 1 1 2.</_></rects>
      <tilted>0</tilted></_>
    <_>
      <rects>
        <_>
          14 4 2 10 -1.</_>
        <_>
          14 4 1 5 2.</_>
        <_>
          15 9 1 5 2.</_></rects>
      <tilted>0</tilted></_>
    <_>
      <rects>
        <_>
          14 6 4 9 -1.</_>
        <_>
          16 6 2 9 2.</_></rects>
      <tilted>0</tilted></_>
    <_>
      <rects>
        <_>
          14 8 2 10 -1.</_>
        <_>
          15 8 1 10 2.</_></rects>
      <tilted>0</tilted></_>
    <_>
      <rects>
        <_>
          15 2 3 2 -1.</_>
        <_>
          15 3 3 1 2.</_></rects>
      <tilted>0</tilted></_>
    <_>
      <rects>
        <_>
          15 13 2 2 -1.</_>
        <_>
          16 13 1 2 2.</_></rects>
      <tilted>0</tilted></_>
    <_>
      <rects>
        <_>
          15 16 3 2 -1.</_>
        <_>
          15 17 3 1 2.</_></rects>
      <tilted>0</tilted></_>
    <_>
      <rects>
        <_>
          16 1 2 1 -1.</_>
        <_>
          17 1 1 1 2.</_></rects>
      <tilted>0</tilted></_>
    <_>
      <rects>
        <_>
          16 5 2 4 -1.</_>
        <_>
          17 5 1 4 2.</_></rects>
      <tilted>0</tilted></_>
    <_>
      <rects>
        <_>
          17 6 1 12 -1.</_>
        <_>
          17 12 1 6 2.</_></rects>
      <tilted>0</tilted></_>
    <_>
      <rects>
        <_>
          17 13 1 4 -1.</_>
        <_>
          17 15 1 2 2.</_></rects>
      <tilted>0</tilted></_>
    <_>
      <rects>
        <_>
          17 14 1 3 -1.</_>
        <_>
          17 15 1 1 2.</_></rects>
      <tilted>0</tilted></_></features></cascade>
</opencv_storage>
