<?xml version="1.0"?>
<opencv_storage>
<stage16>
  <maxWeakCount>6</maxWeakCount>
  <stageThreshold>-4.7053205966949463e-01</stageThreshold>
  <weakClassifiers>
    <_>
      <internalNodes>
        0 -1 10055 1.8469404429197311e-02</internalNodes>
      <leafValues>
        -2.1854305267333984e-01 6.7346936464309692e-01</leafValues></_>
    <_>
      <internalNodes>
        0 -1 50475 6.8430374376475811e-03</internalNodes>
      <leafValues>
        1.7615011334419250e-01 -9.5824956893920898e-01</leafValues></_>
    <_>
      <internalNodes>
        0 -1 43738 2.3218593560159206e-03</internalNodes>
      <leafValues>
        -3.3438062667846680e-01 5.2363717555999756e-01</leafValues></_>
    <_>
      <internalNodes>
        0 -1 14521 5.8882730081677437e-03</internalNodes>
      <leafValues>
        -2.6437562704086304e-01 7.8221648931503296e-01</leafValues></_>
    <_>
      <internalNodes>
        0 -1 23356 3.3644924405962229e-03</internalNodes>
      <leafValues>
        -2.4826005101203918e-01 7.0617401599884033e-01</leafValues></_>
    <_>
      <internalNodes>
        0 -1 33832 -2.1408442407846451e-02</internalNodes>
      <leafValues>
        4.7061777114868164e-01 -3.8532772660255432e-01</leafValues></_></weakClassifiers></stage16>
</opencv_storage>
