<?xml version="1.0"?>
<opencv_storage>
<stage17>
  <maxWeakCount>6</maxWeakCount>
  <stageThreshold>-2.0514965057373047e-01</stageThreshold>
  <weakClassifiers>
    <_>
      <internalNodes>
        0 -1 5035 5.8721157256513834e-04</internalNodes>
      <leafValues>
        3.3846154808998108e-01 -6.2857145071029663e-01</leafValues></_>
    <_>
      <internalNodes>
        0 -1 49764 -2.9126796871423721e-02</internalNodes>
      <leafValues>
        7.3184907436370850e-01 -2.8045085072517395e-01</leafValues></_>
    <_>
      <internalNodes>
        0 -1 4167 -1.6791813075542450e-02</internalNodes>
      <leafValues>
        -9.6950024366378784e-01 1.9894611835479736e-01</leafValues></_>
    <_>
      <internalNodes>
        0 -1 51698 2.3833615705370903e-03</internalNodes>
      <leafValues>
        1.3992536067962646e-01 -8.7580305337905884e-01</leafValues></_>
    <_>
      <internalNodes>
        0 -1 38060 -1.3229590840637684e-03</internalNodes>
      <leafValues>
        7.2844201326370239e-01 -2.5889199972152710e-01</leafValues></_>
    <_>
      <internalNodes>
        0 -1 22093 -7.7374950051307678e-03</internalNodes>
      <leafValues>
        6.8761873245239258e-01 -3.1474539637565613e-01</leafValues></_></weakClassifiers></stage17>
</opencv_storage>
