<?xml version="1.0"?>
<opencv_storage>
<stage13>
  <maxWeakCount>5</maxWeakCount>
  <stageThreshold>-5.6434297561645508e-01</stageThreshold>
  <weakClassifiers>
    <_>
      <internalNodes>
        0 -1 50999 -1.2454872485250235e-03</internalNodes>
      <leafValues>
        6.1764705181121826e-01 -3.1818181276321411e-01</leafValues></_>
    <_>
      <internalNodes>
        0 -1 120 -2.3517927620559931e-03</internalNodes>
      <leafValues>
        -8.8654780387878418e-01 2.3437899351119995e-01</leafValues></_>
    <_>
      <internalNodes>
        0 -1 16 2.7992632240056992e-03</internalNodes>
      <leafValues>
        3.0695104598999023e-01 -5.7217508554458618e-01</leafValues></_>
    <_>
      <internalNodes>
        0 -1 49532 5.1416880451142788e-03</internalNodes>
      <leafValues>
        -3.2567122578620911e-01 5.6240093708038330e-01</leafValues></_>
    <_>
      <internalNodes>
        0 -1 20498 2.4976350367069244e-02</internalNodes>
      <leafValues>
        -2.7672207355499268e-01 6.1685055494308472e-01</leafValues></_></weakClassifiers></stage13>
</opencv_storage>
