<?xml version="1.0"?>
<opencv_storage>
<stage7>
  <maxWeakCount>5</maxWeakCount>
  <stageThreshold>-2.8940767049789429e-01</stageThreshold>
  <weakClassifiers>
    <_>
      <internalNodes>
        0 -1 47772 3.2977836672216654e-03</internalNodes>
      <leafValues>
        2.7631577849388123e-01 -8.7500000000000000e-01</leafValues></_>
    <_>
      <internalNodes>
        0 -1 42967 -7.0419269613921642e-03</internalNodes>
      <leafValues>
        3.9316543936729431e-01 -5.9643608331680298e-01</leafValues></_>
    <_>
      <internalNodes>
        0 -1 901 5.1844823174178600e-03</internalNodes>
      <leafValues>
        -4.7821867465972900e-01 4.7194775938987732e-01</leafValues></_>
    <_>
      <internalNodes>
        0 -1 5033 1.4220161829143763e-03</internalNodes>
      <leafValues>
        2.8737828135490417e-01 -7.9653179645538330e-01</leafValues></_>
    <_>
      <internalNodes>
        0 -1 31305 7.6978048309683800e-03</internalNodes>
      <leafValues>
        -4.6364590525627136e-01 5.1701092720031738e-01</leafValues></_></weakClassifiers></stage7>
</opencv_storage>
